%Created by deal, Wed Nov 18 21:45:59 2020 
%deal is Copyright (C) 2002-2006  Susanne Gammelgaard Bottcher, Claus Dethlefsen
%%%%%%%%%%%%%%%%%%%%%%%%%%%%%%%%%%%%%%%%%%%%%%%%%%%%%%%%%%%%

net
{
	node_size = (40 40);
}

continuous node FEV 
{
	label = "FEV";
	position = ( 187.2018 314.4673 );
}

continuous node Kol 
{
	label = "Kol";
	position = ( 94.6993 289.6813 );
}

continuous node Hyp 
{
	label = "Hyp";
	position = ( 39.77038 211.2347 );
}

continuous node logBMI 
{
	label = "logBMI";
	position = ( 48.11691 115.8334 );
}

discrete node Smok 
{
	states = ( "1" "2" );
	label = "Smok";
	position = ( 115.8334 48.11691 );
}

discrete node Alc 
{
	states = ( "1" "2" );
	label = "Alc";
	position = ( 211.2347 39.77038 );
}

discrete node Work 
{
	states = ( "1" "2" );
	label = "Work";
	position = ( 289.6813 94.6993 );
}

discrete node Sex 
{
	states = ( "1" "2" );
	label = "Sex";
	position = ( 314.4673 187.2018 );
}

discrete node Year 
{
	states = ( "1" "2" );
	label = "Year";
	position = ( 273.9949 273.9949 );
}


potential ( FEV | Smok  Sex  Year   )
{
	data=(
		normal (  197.1101,  4422.238 ) 	% :1:1:1 
	normal (  235.4335,  2753.618 ) 	% :1:1:2 
	normal (  139.424,  1730.279 ) 	% :1:2:1 
	normal (  168.1947,  1639.795 ) 	% :1:2:2 
	normal (  194.3411,  3651.512 ) 	% :2:1:1 
	normal (  201.2177,  3587.764 ) 	% :2:1:2 
	normal (  142.4271,  1757.435 ) 	% :2:2:1 
	normal (  152.5498,  1825.713 ) 	% :2:2:2 
	);
}

potential ( Kol | Sex  Year   )
{
	data=(
		normal (  714.9591,  13165.04 ) 	% :1:1 
	normal (  625.6192,  13009.21 ) 	% :1:2 
	normal (  799.3811,  20884.91 ) 	% :2:1 
	normal (  701.3218,  14902.95 ) 	% :2:2 
	);
}

potential ( Hyp | FEV  logBMI   )
{
	data=(
	normal (  -1.856897-0.0005671233 * FEV+0.7770862 * logBMI,  0.2237068 )
	);
}

potential ( logBMI | Sex  Kol   )
{
	data=(
		normal (  3.131279+0.0001393481 * Kol,  0.01884945 ) 	% :1 
	normal (  3.158427+0.000105245 * Kol,  0.03153029 ) 	% :2 
	);
}

potential ( Smok | Sex  Year   )
{
	data=(
	0.1111111 0.8888889 		% :1:1 
	0.1540342 0.8459658 		% :1:2 
	0.5301205 0.4698795 		% :2:1 
	0.4334204 0.5665796 		% :2:2 
	);
}

potential ( Alc | Smok  Sex  Year   )
{
	data=(
	0.09016393 0.9098361 		% :1:1:1 
	0.2340426 0.7659574 		% :1:1:2 
	0.5460993 0.4539007 		% :1:2:1 
	0.4784689 0.5215311 		% :1:2:2 
	0.1492537 0.8507463 		% :2:1:1 
	0.1301587 0.8698413 		% :2:1:2 
	0.44 0.56 		% :2:2:1 
	0.3793103 0.6206897 		% :2:2:2 
	);
}

potential ( Work | Alc  Sex  Year   )
{
	data=(
	0.5633803 0.4366197 		% :1:1:1 
	0.2238806 0.7761194 		% :1:1:2 
	0.7241379 0.2758621 		% :1:2:1 
	0.4444444 0.5555556 		% :1:2:2 
	0.6949153 0.3050847 		% :2:1:1 
	0.2309942 0.7690058 		% :2:1:2 
	0.8759124 0.1240876 		% :2:2:1 
	0.5533708 0.4466292 		% :2:2:2 
	);
}

potential ( Sex )
{
	data=(0.5213601 0.4786399);
}

potential ( Year )
{
	data=(0.3095031 0.6904969);
}
